<?xml version="1.0"?>
<!-- DTD for the XMLBIF 0.3 format -->
<!DOCTYPE BIF [
	<!ELEMENT BIF ( NETWORK )*>
	      <!ATTLIST BIF VERSION CDATA #REQUIRED>
	<!ELEMENT NETWORK ( NAME, ( PROPERTY | VARIABLE | DEFINITION )* )>
	<!ELEMENT NAME (#PCDATA)>
	<!ELEMENT VARIABLE ( NAME, ( OUTCOME |  PROPERTY )* ) >
	      <!ATTLIST VARIABLE TYPE (nature|decision|utility) "nature">
	<!ELEMENT OUTCOME (#PCDATA)>
	<!ELEMENT DEFINITION ( FOR | GIVEN | TABLE | PROPERTY )* >
	<!ELEMENT FOR (#PCDATA)>
	<!ELEMENT GIVEN (#PCDATA)>
	<!ELEMENT TABLE (#PCDATA)>
	<!ELEMENT PROPERTY (#PCDATA)>
]>


<BIF VERSION="0.3">
<NETWORK>
<NAME>attacked</NAME>
<VARIABLE TYPE="nature">
	<NAME>attacked</NAME>
	<OUTCOME>yes</OUTCOME>
	<OUTCOME>no</OUTCOME>
	<PROPERTY>position = (0,96)</PROPERTY>
</VARIABLE>
<VARIABLE TYPE="nature">
	<NAME>corole</NAME>
	<OUTCOME>seer</OUTCOME>
	<OUTCOME>medium</OUTCOME>
	<OUTCOME>bodyguard</OUTCOME>
	<OUTCOME>none</OUTCOME>
	<PROPERTY>position = (66,96)</PROPERTY>
</VARIABLE>
<VARIABLE TYPE="nature">
	<NAME>team</NAME>
	<OUTCOME>villager</OUTCOME>
	<OUTCOME>werewolf</OUTCOME>
	<PROPERTY>position = (0,0)</PROPERTY>
</VARIABLE>
<DEFINITION>
<FOR>attacked</FOR>
	<GIVEN>team</GIVEN>
<TABLE>
0.2979452054794521 0.702054794520548 
0.056962025316455694 0.9430379746835443 
</TABLE>
</DEFINITION>
<DEFINITION>
<FOR>corole</FOR>
	<GIVEN>team</GIVEN>
<TABLE>
0.16666666666666666 0.12585034013605442 0.05102040816326531 0.6564625850340136 
0.34375 0.16875 0.04375 0.44375 
</TABLE>
</DEFINITION>
<DEFINITION>
<FOR>team</FOR>
<TABLE>
0.6495535714285714 0.35044642857142855 
</TABLE>
</DEFINITION>
</NETWORK>
</BIF>
