<?xml version="1.0"?>
<!-- DTD for the XMLBIF 0.3 format -->
<!DOCTYPE BIF [
	<!ELEMENT BIF ( NETWORK )*>
	      <!ATTLIST BIF VERSION CDATA #REQUIRED>
	<!ELEMENT NETWORK ( NAME, ( PROPERTY | VARIABLE | DEFINITION )* )>
	<!ELEMENT NAME (#PCDATA)>
	<!ELEMENT VARIABLE ( NAME, ( OUTCOME |  PROPERTY )* ) >
	      <!ATTLIST VARIABLE TYPE (nature|decision|utility) "nature">
	<!ELEMENT OUTCOME (#PCDATA)>
	<!ELEMENT DEFINITION ( FOR | GIVEN | TABLE | PROPERTY )* >
	<!ELEMENT FOR (#PCDATA)>
	<!ELEMENT GIVEN (#PCDATA)>
	<!ELEMENT TABLE (#PCDATA)>
	<!ELEMENT PROPERTY (#PCDATA)>
]>


<BIF VERSION="0.3">
<NETWORK>
<NAME>new_seer_4</NAME>
<VARIABLE TYPE="nature">
	<NAME>day</NAME>
	<OUTCOME>0</OUTCOME>
	<OUTCOME>1</OUTCOME>
	<OUTCOME>2</OUTCOME>
	<OUTCOME>3</OUTCOME>
	<OUTCOME>4</OUTCOME>
	<OUTCOME>5</OUTCOME>
	<OUTCOME>6</OUTCOME>
	<OUTCOME>7</OUTCOME>
	<OUTCOME>later</OUTCOME>
	<PROPERTY>position = (56,288)</PROPERTY>
</VARIABLE>
<VARIABLE TYPE="nature">
	<NAME>role</NAME>
	<OUTCOME>VILLAGER</OUTCOME>
	<OUTCOME>BODYGUARD</OUTCOME>
	<OUTCOME>WEREWOLF</OUTCOME>
	<OUTCOME>POSSESSED</OUTCOME>
	<OUTCOME>SEER</OUTCOME>
	<OUTCOME>MEDIUM</OUTCOME>
	<PROPERTY>position = (56,0)</PROPERTY>
</VARIABLE>
<VARIABLE TYPE="nature">
	<NAME>result</NAME>
	<OUTCOME>HUMAN</OUTCOME>
	<OUTCOME>WEREWOLF</OUTCOME>
	<PROPERTY>position = (56,96)</PROPERTY>
</VARIABLE>
<VARIABLE TYPE="nature">
	<NAME>correct</NAME>
	<OUTCOME>true</OUTCOME>
	<OUTCOME>false</OUTCOME>
	<PROPERTY>position = (0,192)</PROPERTY>
</VARIABLE>
<DEFINITION>
<FOR>day</FOR>
	<GIVEN>result</GIVEN>
	<GIVEN>correct</GIVEN>
	<GIVEN>role</GIVEN>
<TABLE>
0.1111111111111111 0.1111111111111111 0.1111111111111111 0.1111111111111111 0.1111111111111111 0.1111111111111111 0.1111111111111111 0.1111111111111111 0.1111111111111111 
0.1111111111111111 0.1111111111111111 0.1111111111111111 0.1111111111111111 0.1111111111111111 0.1111111111111111 0.1111111111111111 0.1111111111111111 0.1111111111111111 
2.2920009168003668E-4 0.13545725418290167 0.25464130185652073 0.2106348842539537 0.18358927343570938 0.09970203988081595 0.07036442814577126 0.03323401329360532 0.012147604859041943 
0.03429764390098419 0.19773337309871758 0.29376677602147333 0.21861019982105578 0.13510289293170294 0.07903370116313749 0.02654339397554429 0.012227855651655234 0.0026841634357291978 
1.9798059790140566E-4 0.22629182340130669 0.2595525638487428 0.24688180558305287 0.14076420510789941 0.07820233617105524 0.03345872104533756 0.013660661255196991 9.899029895070284E-4 
0.1111111111111111 0.1111111111111111 0.1111111111111111 0.1111111111111111 0.1111111111111111 0.1111111111111111 0.1111111111111111 0.1111111111111111 0.1111111111111111 
0.1111111111111111 0.1111111111111111 0.1111111111111111 0.1111111111111111 0.1111111111111111 0.1111111111111111 0.1111111111111111 0.1111111111111111 0.1111111111111111 
0.1111111111111111 0.1111111111111111 0.1111111111111111 0.1111111111111111 0.1111111111111111 0.1111111111111111 0.1111111111111111 0.1111111111111111 0.1111111111111111 
8.123476848090983E-4 0.3566206336311942 0.3517465475223396 0.10804224207961008 0.0982940698619009 0.0463038180341186 0.030056864337936636 0.007311129163281885 8.123476848090983E-4 
0.03602484472049689 0.20993788819875778 0.2720496894409938 0.2124223602484472 0.11801242236024845 0.09565217391304348 0.03602484472049689 0.013664596273291925 0.006211180124223602 
0.1111111111111111 0.1111111111111111 0.1111111111111111 0.1111111111111111 0.1111111111111111 0.1111111111111111 0.1111111111111111 0.1111111111111111 0.1111111111111111 
0.1111111111111111 0.1111111111111111 0.1111111111111111 0.1111111111111111 0.1111111111111111 0.1111111111111111 0.1111111111111111 0.1111111111111111 0.1111111111111111 
0.1111111111111111 0.1111111111111111 0.1111111111111111 0.1111111111111111 0.1111111111111111 0.1111111111111111 0.1111111111111111 0.1111111111111111 0.1111111111111111 
0.1111111111111111 0.1111111111111111 0.1111111111111111 0.1111111111111111 0.1111111111111111 0.1111111111111111 0.1111111111111111 0.1111111111111111 0.1111111111111111 
0.005917159763313609 0.01775147928994083 0.14792899408284024 0.38461538461538464 0.1834319526627219 0.14792899408284024 0.08875739644970414 0.01775147928994083 0.005917159763313609 
0.004524886877828055 0.33031674208144796 0.07692307692307693 0.1493212669683258 0.29411764705882354 0.07692307692307693 0.04072398190045249 0.02262443438914027 0.004524886877828055 
6.697923643670462E-4 0.21902210314802412 0.22438044206296048 0.24045545880776958 0.12525117213663764 0.08372404554588078 0.07434695244474213 0.028801071667782986 0.003348961821835231 
0.1111111111111111 0.1111111111111111 0.1111111111111111 0.1111111111111111 0.1111111111111111 0.1111111111111111 0.1111111111111111 0.1111111111111111 0.1111111111111111 
0.1111111111111111 0.1111111111111111 0.1111111111111111 0.1111111111111111 0.1111111111111111 0.1111111111111111 0.1111111111111111 0.1111111111111111 0.1111111111111111 
0.1111111111111111 0.1111111111111111 0.1111111111111111 0.1111111111111111 0.1111111111111111 0.1111111111111111 0.1111111111111111 0.1111111111111111 0.1111111111111111 
5.704506560182544E-4 0.21505989731888192 0.16942384483742157 0.289218482601255 0.13861950941243584 0.09412435824301198 0.057615516257843696 0.027952082144894468 0.007415858528237307 
0.021013597033374538 0.32014833127317677 0.12237330037082818 0.15203955500618047 0.23856613102595797 0.06798516687268233 0.0630407911001236 0.011124845488257108 0.003708281829419036 
0.1111111111111111 0.1111111111111111 0.1111111111111111 0.1111111111111111 0.1111111111111111 0.1111111111111111 0.1111111111111111 0.1111111111111111 0.1111111111111111 
0.1111111111111111 0.1111111111111111 0.1111111111111111 0.1111111111111111 0.1111111111111111 0.1111111111111111 0.1111111111111111 0.1111111111111111 0.1111111111111111 
</TABLE>
</DEFINITION>
<DEFINITION>
<FOR>role</FOR>
<TABLE>
5.2181173032769774E-5 5.2181173032769774E-5 0.3903673554581507 0.26888958463786267 0.34058651638488835 5.2181173032769774E-5 
</TABLE>
</DEFINITION>
<DEFINITION>
<FOR>result</FOR>
	<GIVEN>role</GIVEN>
<TABLE>
0.5 0.5 
0.5 0.5 
0.7453889334402566 0.25461106655974336 
0.803453628249903 0.196546371750097 
0.7725183823529411 0.22748161764705882 
0.5 0.5 
</TABLE>
</DEFINITION>
<DEFINITION>
<FOR>correct</FOR>
	<GIVEN>result</GIVEN>
	<GIVEN>role</GIVEN>
<TABLE>
0.5 0.5 
0.5 0.5 
0.7807457870204374 0.21925421297956257 
0.8075808788025108 0.19241912119748913 
0.9998017446471055 1.9825535289452815E-4 
0.5 0.5 
0.5 0.5 
0.5 0.5 
0.0844700944386149 0.9155299055613851 
0.21005917159763313 0.7899408284023669 
0.9993270524899058 6.729475100942127E-4 
0.5 0.5 
</TABLE>
</DEFINITION>
</NETWORK>
</BIF>
