<?xml version="1.0"?>
<!-- DTD for the XMLBIF 0.3 format -->
<!DOCTYPE BIF [
	<!ELEMENT BIF ( NETWORK )*>
	      <!ATTLIST BIF VERSION CDATA #REQUIRED>
	<!ELEMENT NETWORK ( NAME, ( PROPERTY | VARIABLE | DEFINITION )* )>
	<!ELEMENT NAME (#PCDATA)>
	<!ELEMENT VARIABLE ( NAME, ( OUTCOME |  PROPERTY )* ) >
	      <!ATTLIST VARIABLE TYPE (nature|decision|utility) "nature">
	<!ELEMENT OUTCOME (#PCDATA)>
	<!ELEMENT DEFINITION ( FOR | GIVEN | TABLE | PROPERTY )* >
	<!ELEMENT FOR (#PCDATA)>
	<!ELEMENT GIVEN (#PCDATA)>
	<!ELEMENT TABLE (#PCDATA)>
	<!ELEMENT PROPERTY (#PCDATA)>
]>


<BIF VERSION="0.3">
<NETWORK>
<NAME>werewolf_divine</NAME>
<VARIABLE TYPE="nature">
	<NAME>day</NAME>
	<OUTCOME>1</OUTCOME>
	<OUTCOME>2</OUTCOME>
	<OUTCOME>3</OUTCOME>
	<OUTCOME>4</OUTCOME>
	<OUTCOME>later</OUTCOME>
	<PROPERTY>position = (0,96)</PROPERTY>
</VARIABLE>
<VARIABLE TYPE="nature">
	<NAME>species</NAME>
	<OUTCOME>werewolf</OUTCOME>
	<OUTCOME>human</OUTCOME>
	<PROPERTY>position = (69,96)</PROPERTY>
</VARIABLE>
<VARIABLE TYPE="nature">
	<NAME>seer_role</NAME>
	<OUTCOME>seer</OUTCOME>
	<OUTCOME>werewolf</OUTCOME>
	<OUTCOME>possessed</OUTCOME>
	<OUTCOME>other</OUTCOME>
	<PROPERTY>position = (69,0)</PROPERTY>
</VARIABLE>
<VARIABLE TYPE="nature">
	<NAME>correct</NAME>
	<OUTCOME>yes</OUTCOME>
	<OUTCOME>no</OUTCOME>
	<PROPERTY>position = (138,96)</PROPERTY>
</VARIABLE>
<DEFINITION>
<FOR>day</FOR>
	<GIVEN>seer_role</GIVEN>
<TABLE>
0.5111111111111111 0.28888888888888886 0.15555555555555556 0.022222222222222223 0.022222222222222223 
0.3333333333333333 0.1111111111111111 0.3333333333333333 0.1111111111111111 0.1111111111111111 
0.4594594594594595 0.35135135135135137 0.13513513513513514 0.02702702702702703 0.02702702702702703 
0.2 0.2 0.2 0.2 0.2 
</TABLE>
</DEFINITION>
<DEFINITION>
<FOR>species</FOR>
	<GIVEN>seer_role</GIVEN>
<TABLE>
0.30952380952380953 0.6904761904761905 
0.5 0.5 
0.20588235294117646 0.7941176470588235 
0.5 0.5 
</TABLE>
</DEFINITION>
<DEFINITION>
<FOR>seer_role</FOR>
<TABLE>
0.5125 0.0625 0.4125 0.0125 
</TABLE>
</DEFINITION>
<DEFINITION>
<FOR>correct</FOR>
	<GIVEN>seer_role</GIVEN>
<TABLE>
0.9761904761904762 0.023809523809523808 
0.5 0.5 
0.5588235294117647 0.4411764705882353 
0.5 0.5 
</TABLE>
</DEFINITION>
</NETWORK>
</BIF>
